digraph Tree {
node [shape=box, fontname="helvetica"] ;
edge [fontname="helvetica"] ;
0 [label="concave points_mean <= 0.051\nentropy = 0.948\nsamples = 398\nvalue = [252, 146]"] ;
1 [label="area_worst <= 957.45\nentropy = 0.298\nsamples = 246\nvalue = [233, 13]"] ;
0 -> 1 [labeldistance=2.5, labelangle=45, headlabel="True"] ;
2 [label="area_se <= 34.405\nentropy = 0.171\nsamples = 236\nvalue = [230, 6]"] ;
1 -> 2 ;
3 [label="texture_worst <= 30.145\nentropy = 0.074\nsamples = 223\nvalue = [221, 2]"] ;
2 -> 3 ;
4 [label="entropy = 0.0\nsamples = 189\nvalue = [189, 0]"] ;
3 -> 4 ;
5 [label="texture_se <= 0.86\nentropy = 0.323\nsamples = 34\nvalue = [32, 2]"] ;
3 -> 5 ;
6 [label="entropy = 0.0\nsamples = 1\nvalue = [0, 1]"] ;
5 -> 6 ;
7 [label="smoothness_worst <= 0.141\nentropy = 0.196\nsamples = 33\nvalue = [32, 1]"] ;
5 -> 7 ;
8 [label="entropy = 0.0\nsamples = 28\nvalue = [28, 0]"] ;
7 -> 8 ;
9 [label="concave points_worst <= 0.09\nentropy = 0.722\nsamples = 5\nvalue = [4, 1]"] ;
7 -> 9 ;
10 [label="entropy = 0.0\nsamples = 4\nvalue = [4, 0]"] ;
9 -> 10 ;
11 [label="entropy = 0.0\nsamples = 1\nvalue = [0, 1]"] ;
9 -> 11 ;
12 [label="symmetry_se <= 0.025\nentropy = 0.89\nsamples = 13\nvalue = [9, 4]"] ;
2 -> 12 ;
13 [label="fractal_dimension_mean <= 0.055\nentropy = 0.722\nsamples = 5\nvalue = [1, 4]"] ;
12 -> 13 ;
14 [label="entropy = 0.0\nsamples = 1\nvalue = [1, 0]"] ;
13 -> 14 ;
15 [label="entropy = 0.0\nsamples = 4\nvalue = [0, 4]"] ;
13 -> 15 ;
16 [label="entropy = 0.0\nsamples = 8\nvalue = [8, 0]"] ;
12 -> 16 ;
17 [label="fractal_dimension_worst <= 0.065\nentropy = 0.881\nsamples = 10\nvalue = [3, 7]"] ;
1 -> 17 ;
18 [label="entropy = 0.0\nsamples = 3\nvalue = [3, 0]"] ;
17 -> 18 ;
19 [label="entropy = 0.0\nsamples = 7\nvalue = [0, 7]"] ;
17 -> 19 ;
20 [label="perimeter_worst <= 114.45\nentropy = 0.544\nsamples = 152\nvalue = [19, 133]"] ;
0 -> 20 [labeldistance=2.5, labelangle=-45, headlabel="False"] ;
21 [label="texture_worst <= 25.105\nentropy = 1.0\nsamples = 39\nvalue = [19, 20]"] ;
20 -> 21 ;
22 [label="area_worst <= 817.6\nentropy = 0.454\nsamples = 21\nvalue = [19, 2]"] ;
21 -> 22 ;
23 [label="entropy = 0.0\nsamples = 16\nvalue = [16, 0]"] ;
22 -> 23 ;
24 [label="area_worst <= 840.75\nentropy = 0.971\nsamples = 5\nvalue = [3, 2]"] ;
22 -> 24 ;
25 [label="entropy = 0.0\nsamples = 2\nvalue = [0, 2]"] ;
24 -> 25 ;
26 [label="entropy = 0.0\nsamples = 3\nvalue = [3, 0]"] ;
24 -> 26 ;
27 [label="entropy = 0.0\nsamples = 18\nvalue = [0, 18]"] ;
21 -> 27 ;
28 [label="entropy = 0.0\nsamples = 113\nvalue = [0, 113]"] ;
20 -> 28 ;
}